digraph Tree {
node [shape=box, style="filled, rounded", color="black", fontname="helvetica"] ;
edge [fontname="helvetica"] ;
0 [label="Weighted Median Income <= 1.09\nsquared_error = 0.02\nsamples = 103\nvalue = 0.55", fillcolor="#f0b58b"] ;
1 [label="Weighted Median Income <= -0.93\nsquared_error = 0.01\nsamples = 92\nvalue = 0.53", fillcolor="#f1ba92"] ;
0 -> 1 [labeldistance=2.5, labelangle=45, headlabel="True"] ;
2 [label="Weighted Median Income <= -1.12\nsquared_error = 0.0\nsamples = 16\nvalue = 0.65", fillcolor="#eca36e"] ;
1 -> 2 ;
3 [label="American Indian and Alaska Native, not hispanic <= -0.33\nsquared_error = 0.0\nsamples = 10\nvalue = 0.68", fillcolor="#eb9e67"] ;
2 -> 3 ;
4 [label="Bachelor degree <= -1.03\nsquared_error = 0.0\nsamples = 6\nvalue = 0.66", fillcolor="#eba06a"] ;
3 -> 4 ;
5 [label="Below Poverty Line % <= 1.47\nsquared_error = 0.0\nsamples = 4\nvalue = 0.68", fillcolor="#eb9d66"] ;
4 -> 5 ;
6 [label="squared_error = 0.0\nsamples = 2\nvalue = 0.68", fillcolor="#eb9d64"] ;
5 -> 6 ;
7 [label="squared_error = 0.0\nsamples = 2\nvalue = 0.67", fillcolor="#eb9f67"] ;
5 -> 7 ;
8 [label="squared_error = 0.0\nsamples = 2\nvalue = 0.64", fillcolor="#eda672"] ;
4 -> 8 ;
9 [label="Some other race alone, not hispanic <= -0.52\nsquared_error = 0.0\nsamples = 4\nvalue = 0.7", fillcolor="#ea995e"] ;
3 -> 9 ;
10 [label="squared_error = 0.0\nsamples = 2\nvalue = 0.69", fillcolor="#eb9c63"] ;
9 -> 10 ;
11 [label="squared_error = 0.0\nsamples = 2\nvalue = 0.73", fillcolor="#e99457"] ;
9 -> 11 ;
12 [label="Asain, not hispanic <= -0.71\nsquared_error = 0.0\nsamples = 6\nvalue = 0.61", fillcolor="#eeab7b"] ;
2 -> 12 ;
13 [label="squared_error = 0.0\nsamples = 3\nvalue = 0.58", fillcolor="#efb083"] ;
12 -> 13 ;
14 [label="squared_error = 0.0\nsamples = 3\nvalue = 0.63", fillcolor="#eda774"] ;
12 -> 14 ;
15 [label="Two or More Races, not hispanic <= -1.74\nsquared_error = 0.01\nsamples = 76\nvalue = 0.5", fillcolor="#f2bf9a"] ;
1 -> 15 ;
16 [label="squared_error = 0.03\nsamples = 2\nvalue = 0.15", fillcolor="#ffffff"] ;
15 -> 16 ;
17 [label="Bachelor degree <= 0.22\nsquared_error = 0.01\nsamples = 74\nvalue = 0.51", fillcolor="#f1bd97"] ;
15 -> 17 ;
18 [label="Some other race alone, not hispanic <= 0.05\nsquared_error = 0.01\nsamples = 50\nvalue = 0.49", fillcolor="#f2c19e"] ;
17 -> 18 ;
19 [label="Below Poverty Line % <= -0.28\nsquared_error = 0.01\nsamples = 30\nvalue = 0.52", fillcolor="#f1bb95"] ;
18 -> 19 ;
20 [label="Some other race alone, not hispanic <= -0.46\nsquared_error = 0.0\nsamples = 18\nvalue = 0.49", fillcolor="#f2c19d"] ;
19 -> 20 ;
21 [label="American Indian and Alaska Native, not hispanic <= -0.61\nsquared_error = 0.0\nsamples = 12\nvalue = 0.52", fillcolor="#f1bb95"] ;
20 -> 21 ;
22 [label="squared_error = 0.0\nsamples = 2\nvalue = 0.57", fillcolor="#efb286"] ;
21 -> 22 ;
23 [label="squared_error = 0.0\nsamples = 10\nvalue = 0.51", fillcolor="#f2be98"] ;
21 -> 23 ;
24 [label="Native Hawaiian and Other Pacific Islander, not hispanic <= -0.49\nsquared_error = 0.0\nsamples = 6\nvalue = 0.44", fillcolor="#f4caac"] ;
20 -> 24 ;
25 [label="squared_error = 0.0\nsamples = 4\nvalue = 0.4", fillcolor="#f6d1b7"] ;
24 -> 25 ;
26 [label="squared_error = 0.0\nsamples = 2\nvalue = 0.52", fillcolor="#f1bb94"] ;
24 -> 26 ;
27 [label="Weighted Median Income <= -0.32\nsquared_error = 0.01\nsamples = 12\nvalue = 0.58", fillcolor="#efb082"] ;
19 -> 27 ;
28 [label="Two or More Races, not hispanic <= -0.38\nsquared_error = 0.0\nsamples = 10\nvalue = 0.56", fillcolor="#f0b48a"] ;
27 -> 28 ;
29 [label="squared_error = 0.0\nsamples = 5\nvalue = 0.52", fillcolor="#f1bb95"] ;
28 -> 29 ;
30 [label="squared_error = 0.0\nsamples = 5\nvalue = 0.59", fillcolor="#eeae80"] ;
28 -> 30 ;
31 [label="squared_error = 0.02\nsamples = 2\nvalue = 0.75", fillcolor="#e89051"] ;
27 -> 31 ;
32 [label="American Indian and Alaska Native, not hispanic <= 0.41\nsquared_error = 0.0\nsamples = 20\nvalue = 0.44", fillcolor="#f4caac"] ;
18 -> 32 ;
33 [label="Below Poverty Line % <= -0.72\nsquared_error = 0.0\nsamples = 13\nvalue = 0.42", fillcolor="#f5cdb0"] ;
32 -> 33 ;
34 [label="squared_error = 0.0\nsamples = 2\nvalue = 0.47", fillcolor="#f3c5a4"] ;
33 -> 34 ;
35 [label="American Indian and Alaska Native, not hispanic <= -0.62\nsquared_error = 0.0\nsamples = 11\nvalue = 0.41", fillcolor="#f5cfb3"] ;
33 -> 35 ;
36 [label="squared_error = 0.0\nsamples = 2\nvalue = 0.45", fillcolor="#f4c8a8"] ;
35 -> 36 ;
37 [label="squared_error = 0.0\nsamples = 9\nvalue = 0.4", fillcolor="#f5d1b6"] ;
35 -> 37 ;
38 [label="White, not hispanic <= -0.42\nsquared_error = 0.0\nsamples = 7\nvalue = 0.48", fillcolor="#f2c29f"] ;
32 -> 38 ;
39 [label="Bachelor degree <= -0.42\nsquared_error = 0.0\nsamples = 5\nvalue = 0.51", fillcolor="#f1bd97"] ;
38 -> 39 ;
40 [label="squared_error = 0.0\nsamples = 3\nvalue = 0.49", fillcolor="#f2c09c"] ;
39 -> 40 ;
41 [label="squared_error = 0.0\nsamples = 2\nvalue = 0.55", fillcolor="#f0b68c"] ;
39 -> 41 ;
42 [label="squared_error = 0.0\nsamples = 2\nvalue = 0.42", fillcolor="#f5ceb1"] ;
38 -> 42 ;
43 [label="Weighted Median Income <= -0.27\nsquared_error = 0.01\nsamples = 24\nvalue = 0.57", fillcolor="#efb185"] ;
17 -> 43 ;
44 [label="Two or More Races, not hispanic <= 0.48\nsquared_error = 0.01\nsamples = 5\nvalue = 0.71", fillcolor="#ea975c"] ;
43 -> 44 ;
45 [label="squared_error = 0.0\nsamples = 3\nvalue = 0.77", fillcolor="#e78d4b"] ;
44 -> 45 ;
46 [label="squared_error = 0.0\nsamples = 2\nvalue = 0.6", fillcolor="#eeac7c"] ;
44 -> 46 ;
47 [label="Bachelor degree <= 1.4\nsquared_error = 0.0\nsamples = 19\nvalue = 0.54", fillcolor="#f0b88f"] ;
43 -> 47 ;
48 [label="NormalizedSD <= -0.61\nsquared_error = 0.0\nsamples = 16\nvalue = 0.52", fillcolor="#f1bc95"] ;
47 -> 48 ;
49 [label="White, not hispanic <= 0.57\nsquared_error = 0.0\nsamples = 8\nvalue = 0.54", fillcolor="#f0b68d"] ;
48 -> 49 ;
50 [label="squared_error = 0.0\nsamples = 5\nvalue = 0.57", fillcolor="#efb287"] ;
49 -> 50 ;
51 [label="squared_error = 0.0\nsamples = 3\nvalue = 0.51", fillcolor="#f1bc96"] ;
49 -> 51 ;
52 [label="American Indian and Alaska Native, not hispanic <= -0.38\nsquared_error = 0.0\nsamples = 8\nvalue = 0.48", fillcolor="#f2c2a0"] ;
48 -> 52 ;
53 [label="squared_error = 0.0\nsamples = 3\nvalue = 0.42", fillcolor="#f5cdb0"] ;
52 -> 53 ;
54 [label="squared_error = 0.0\nsamples = 5\nvalue = 0.51", fillcolor="#f1bd97"] ;
52 -> 54 ;
55 [label="squared_error = 0.0\nsamples = 3\nvalue = 0.65", fillcolor="#eca26d"] ;
47 -> 55 ;
56 [label="Asain, not hispanic <= 0.09\nsquared_error = 0.0\nsamples = 11\nvalue = 0.77", fillcolor="#e78c4b"] ;
0 -> 56 [labeldistance=2.5, labelangle=-45, headlabel="False"] ;
57 [label="Native Hawaiian and Other Pacific Islander, not hispanic <= -0.29\nsquared_error = 0.0\nsamples = 8\nvalue = 0.73", fillcolor="#e99456"] ;
56 -> 57 ;
58 [label="Black or African American, not hispanic <= -0.6\nsquared_error = 0.0\nsamples = 5\nvalue = 0.76", fillcolor="#e88f4f"] ;
57 -> 58 ;
59 [label="squared_error = 0.0\nsamples = 2\nvalue = 0.72", fillcolor="#e99659"] ;
58 -> 59 ;
60 [label="squared_error = 0.0\nsamples = 3\nvalue = 0.78", fillcolor="#e78b49"] ;
58 -> 60 ;
61 [label="squared_error = 0.0\nsamples = 3\nvalue = 0.68", fillcolor="#eb9d66"] ;
57 -> 61 ;
62 [label="squared_error = 0.0\nsamples = 3\nvalue = 0.83", fillcolor="#e58139"] ;
56 -> 62 ;
}